{"num_inputs":3,"num_outputs":3,"layers":[[5,{"layer_weights":[[0.85313284,0.21502426,-0.7048412,0.006621517,-0.7501756,-0.6381833,0.9792637,-0.08971578,0.54255486,-0.74881405,0.103434615,-0.7391801,-0.8949664,-0.51468015,-0.2974087],5,3],"layer_bias":[[0.20683202,0.4584161,-0.43493286,0.5094173,-0.40676224],5,null],"layer_inputs":[[0.0,0.0,0.0],3,null],"layer_outputs":[[0.0,0.0,0.0,0.0,0.0],5,null]}],[5,{"layer_weights":[[0.61551064,0.9238727,0.45343655,-0.15361361,-0.770276,-0.5994133,-0.15645142,0.34095216,-0.9107574,-0.11340268,-0.13451411,0.07917928,0.5588075,0.41842315,0.71108377,0.082075074,0.742476,-0.1724758,-0.16488802,-0.38450548,0.1100812,-0.2054105,-0.97951627,0.2573077,-0.80003303],5,5],"layer_bias":[[-0.11545111,-0.30678928,0.31195444,0.6308672,0.11006337],5,null],"layer_inputs":[[0.0,0.0,0.0,0.0,0.0],5,null],"layer_outputs":[[0.0,0.0,0.0,0.0,0.0],5,null]}],[5,{"layer_weights":[[0.6698186,0.07551848,-0.07611193,0.95655394,0.0046580373,-0.4778273,0.7404081,0.20416579,-0.8635672,-0.84665406,-0.63132054,0.7959592,-0.27426478,0.1466079,-0.8479058,-0.6677706,0.74808073,-0.4010754,0.65259624,-0.65775114,-0.70789856,0.96793383,0.8118437,0.68836117,0.12957259],5,5],"layer_bias":[[0.048698932,0.5318844,0.31610847,-0.8841527,0.9357372],5,null],"layer_inputs":[[0.0,0.0,0.0,0.0,0.0],5,null],"layer_outputs":[[0.0,0.0,0.0,0.0,0.0],5,null]}],[5,{"layer_weights":[[0.81547743,0.7698583,0.36286834,0.37162238,-0.39311188,0.18162988,0.23143232,-0.24070211,1.1319335,-0.11468581,-0.10246397,-0.6122926,0.07164587,0.13733944,0.3328402,0.62124246,-0.6627469,-0.57732636,0.8144011,0.4625588,0.81537235,-0.65808094,-0.53317624,-0.046336226,-0.7688465],5,5],"layer_bias":[[0.7262597,-0.6618268,-0.40773717,-0.97468275,-0.93858933],5,null],"layer_inputs":[[0.0,0.0,0.0,0.0,0.0],5,null],"layer_outputs":[[0.0,0.0,0.0,0.0,0.0],5,null]}],[5,{"layer_weights":[[0.45091787,1.6245894,1.4446182,0.45827532,1.4817159,0.9192733,-0.5678931,1.0926496,0.91650856,-0.5058833,0.021601833,0.9533867,-0.4555292,-0.1264951,1.034989,1.483493,0.2797608,1.0449182,0.8777055,-0.20412995,0.22219613,0.18866524,0.5098153,0.81804675,0.155121],5,5],"layer_bias":[[0.56335545,-0.6642076,-0.4930657,0.37800446,-0.6577151],5,null],"layer_inputs":[[0.0,0.0,0.0,0.0,0.0],5,null],"layer_outputs":[[0.0,0.0,0.0,0.0,0.0],5,null]}],[3,{"layer_weights":[[2.4521518,-2.0573237,-1.8675514,1.403276,-0.9533392,-1.6004461,1.2353666,-1.6231985,-2.090139,1.1135014,-2.2793508,-2.186487,1.3331089,-1.5482383,-1.4406759],3,5],"layer_bias":[[0.73436356,0.0006885316,0.5180529],3,null],"layer_inputs":[[0.0,0.0,0.0,0.0,0.0],5,null],"layer_outputs":[[0.0,0.0,0.0],3,null]}]],"accumelated_cost":0.0,"accumelated_guesses":[[0.0,0.0,0.0],3,null],"num_calcs":0}